#ifndef MODEL_WEIGHTS_H
#define MODEL_WEIGHTS_H

// Shape: [20, 10]
const float layer1_weight[] = {
    -0.37567657, -0.19568548, 0.24726897, -0.75965077, -0.30050337, 0.014439139, 0.8903695, 0.07082683, -0.15743464, -0.09154914, -0.58833206, -0.025634976, 0.08009285, 0.50322497, 0.46112952, 0.008788671, -0.20261084, 0.10265953, -0.3184686, 0.18309171, 0.57936966, -0.023070581, -0.28759524, 0.44429585, 0.29814163, -0.17159885, -1.1406095, -0.3980109, -1.6590515, -1.8291165, -0.06601901, -0.14657968, 0.12197326, 0.724572, 0.47337198, -0.2835847, -0.66625345, 0.04570697, -0.31350815, 0.22119622, 0.2509316, 0.36962733, 0.028711729, -0.45166692, 0.29569712, 0.26956072, 0.37083405, 0.06394831, -0.56628335, 0.14414893, -0.27737167, -0.9216835, -0.1450053, 0.7934732, -0.016972888, -0.1818489, -0.40842816, 0.008470307, 0.26808783, -0.08355283, 0.13051625, 0.029906143, 0.066600285, 0.4709949, 0.5571415, -1.0254911, -0.28583714, -0.120458625, -0.44864318, 0.061046466, -0.9275749, 0.63556474, -0.28085312, 0.3389393, 0.37468073, -0.19587074, 0.21371216, 0.027114023, -0.60303974, -0.8088645, 0.22181064, 0.5128853, 0.044299398, -0.31084207, -0.6168664, 0.61317724, -0.76452607, -0.94837624, 0.37830096, 0.32474905, -0.34341982, -0.0014691534, 0.12477713, 0.826446, 0.22659543, -0.12997179, -0.70459104, -0.043027554, -0.035887536, -0.079551, -0.17978388, 0.49309957, 0.102760784, -0.16718848, 0.19932373, -0.5809853, -0.62737644, 0.31156617, -0.28879243, 0.386274, 0.53821623, 0.00404495, -0.17365146, 0.07841229, -0.54772246, -0.32988703, -0.15899663, 0.33462545, 0.14309473, 0.06008032, 0.05015285, 0.07407154, -0.27905342, 0.0082748, 0.0027120772, 0.6674276, 0.51294607, -0.6966416, -1.4486141, -2.8716524, 0.2935903, -0.010988005, 0.25722215, -0.9744032, -1.3937657, 0.05905457, 0.6781203, 0.22485141, -0.18778919, -0.9922468, -0.08192644, 0.044078838, 0.0021413108, 0.5328894, -1.0210268, 0.9643997, -0.44098574, -0.034126047, 0.115289114, -0.19978064, -1.5883121, -0.5552807, 0.19491471, 0.6295574, 0.24285978, -0.1987716, -0.8083509, -0.56076884, -0.65775394, 0.20051415, -0.11461016, -0.03336607, 0.06462323, -0.6962065, 0.0762466, -0.2929822, 0.68574977, 0.2589985, 0.21600218, -0.31109992, -0.2175149, 0.06974713, 0.22419256, -0.8666468, -0.35748258, 0.82838106, 0.050955124, -0.14458631, 0.0005291787, -0.021575408, 0.04498065, 0.040081397, 0.13685508, -0.72563726, -0.19653751, 0.057005644, 0.79786956, 0.10917985, 0.16481279, -0.074015215, -0.19736609, -0.10255247, 0.021198468, 0.5998179, -0.63006264, 0.6446095, -0.49261373, 0.3096058, -0.36656007, -0.2165333
};

const int layer1_weight_out = 20;
const int layer1_weight_in = 10;

// Shape: [20]
const float layer1_bias[] = {
    0.29168534, -0.2075465, 0.039079413, -0.18416569, -0.08813748, -0.32540458, 0.39104652, 0.07306562, 0.23396619, 0.13136944, 0.29940382, -0.30920896, -0.3072324, 0.059112724, 0.07032692, 0.14145052, -0.19222397, 0.3047057, -0.16155182, 0.1750667
};

// Shape: [20, 20]
const float layer2_weight[] = {
    0.6256594, -0.3811753, -0.6111737, -0.6457789, 0.25331518, -0.57798535, -0.18018779, -0.88992834, -0.5538611, -1.0037323, -0.18743183, -0.018507255, -0.5180803, -0.043632157, -2.6181076, -0.50383556, -0.07390119, 0.38573956, 0.36817354, -0.27778453, -1.0227349, -0.18285736, 0.3310622, 0.7164275, 0.027075762, -0.118401386, 0.35411826, -0.1405718, 0.73967654, -0.3578352, 0.37260845, 0.20027003, 0.0009034506, 0.26749748, -0.077429526, -0.7603154, -0.5135747, -0.38020113, -0.12775728, -0.4900417, 0.83486116, -0.031038206, -0.50436205, -0.11004231, 0.17857784, -0.0769716, 0.5519401, -0.12441809, -1.5301634, -1.0607959, -0.44223472, -0.24304272, -0.31500933, -0.6674275, -2.2726266, -0.22856581, 0.12693374, 0.09584404, 0.8886032, -1.1950483, -0.7098639, 0.20094351, 0.44465, 0.40138426, 0.124679826, -0.07372911, -0.6029331, -0.39843047, 0.8387744, 0.67854357, 0.17920595, -0.23746727, 0.6501407, 0.44508022, -0.46993268, 0.7110515, -0.40259975, -0.31460744, -0.5487537, 0.4562656, 0.05594387, -0.24278636, 1.1326838, 0.17252527, 0.203924, -0.09818248, -0.4474177, -0.27263725, 0.4799914, 0.24229044, -0.033301003, -0.094335474, 0.9088494, -0.6817452, -0.4338268, 0.29038137, 0.046049926, 0.37488732, -0.13548645, -0.20763917, 0.036899656, -0.11947646, 0.5283905, 0.051761054, 0.49906075, -0.25985494, -0.636993, -0.58331907, 1.0163746, 0.4964656, 0.46688685, -0.010582187, 0.46841317, -0.72204345, 0.03518351, 0.23357165, -0.4027774, 0.48667377, -0.4452685, 0.12687229, -0.95244706, 0.097435765, 0.49274495, 0.25365126, 0.15405412, -0.008507651, -0.77344465, -0.38141128, 0.7132016, 0.6566593, 0.23605894, -0.6944168, 0.28820747, -0.47575912, 0.5520906, -0.1399515, 0.13350996, -0.27316785, -1.9814957, 0.7924226, 0.0024573973, -0.1462297, -0.5713713, -0.13796073, -0.07706232, -0.21627127, 0.07400687, -0.35210228, -0.3996673, 0.10505841, -0.110650845, 0.3773631, -0.34295154, 0.25257924, -1.006293, -0.6685451, 0.023570046, -0.10822675, 0.019409306, 0.11824569, -0.2602449, -0.14030337, -1.1416576, 0.4813533, -0.19676648, -0.3938987, -0.610455, -0.011225332, 0.8919556, 0.43405578, -0.06569136, -0.14126205, 1.2937973, -0.26034772, 1.2668867, 0.47911698, -0.45740896, 0.3611664, -0.5226946, 0.1780205, 0.038361493, 0.16413444, 0.6735827, 0.2512007, 0.43471068, -0.47046015, -0.1963064, -0.8451409, 0.20022793, 0.31301078, -0.2907728, -0.34753397, 0.55990016, -0.8351745, -0.6016024, 0.079017155, -0.28575182, 0.10597493, -0.25744674, 0.037457276, -1.286962, 0.3584116, -0.5387875, 0.29192078, 0.047714792, -0.007900036, -0.9071225, -0.077802055, -0.6523648, 0.63605756, 0.16616811, -0.20189229, 1.3844408, -0.6126113, -1.8359164, -0.2603481, 0.0046130996, -0.5701044, 0.20362791, 0.08121769, -0.013804702, 0.06595783, -0.2742142, -0.4497173, 0.102512516, 0.17047802, -1.2388365, -0.54922324, 1.1418749, -0.5004957, -0.72630847, 0.11354583, 1.3020008, 0.13190292, -1.2143184, -0.695182, 0.30417898, 0.45610583, 0.14154017, -1.1170763, -0.043461014, -0.063652754, 0.58002734, -0.03087519, -0.18732747, 0.55791485, 0.03698156, 0.12415963, -0.12664424, -0.28002337, 0.19547981, 0.22258364, -0.38116404, 0.04993348, 0.28017777, 0.6802449, 0.3520029, -0.29317397, 0.06354608, -0.39147425, 0.2723791, -0.6022276, -2.0666924, -0.67228514, -0.39181873, 0.36863726, 0.38915193, 0.28514698, 0.45796937, 0.35357144, -0.13788262, 0.42153364, -0.78585184, 0.941526, 1.1310759, -0.3866042, 0.49931568, -0.081893876, -1.6865058, 0.85770386, 0.3863457, -0.32884008, 1.4230202, 0.31006575, 0.23349698, -0.34165215, -0.09857594, -0.5477548, 0.11435678, 0.24237499, -0.44255283, -0.28426716, 0.55589294, -0.7611227, -1.0022858, -0.30023515, -0.59162766, 0.4871613, -0.07394546, 0.04891024, 0.61592364, 0.18502374, -0.37706637, -0.02180046, 0.2511364, -0.28852597, 0.088408895, -0.15922922, -0.17344025, -0.43897617, -0.2566342, -0.32491848, 0.83684283, 0.080376625, -1.4608121, -0.12336713, -0.07873376, 0.37985998, 0.34766927, -1.0105152, 0.042684995, 0.021373391, -0.036655188, -0.10841027, -0.2775066, 0.48903248, 0.16720445, 0.3649154, -0.34584695, -0.5587471, 0.06522306, -0.18826558, -0.41445845, 0.5761002, 0.81485635, 0.45360786, 0.07452282, -0.20479545, 0.15583465, -0.43830988, -0.29892185, 0.057389356, -0.10049681, -0.31156537, -0.28646883, 0.63877636, 0.054052267, 0.47279945, -0.23539056, -0.36675107, -0.034620043, -0.024729064, -0.33706683, 0.85723126, 0.7731395, 0.45913598, 0.52671057, -0.45259646, 0.21579447, -0.36970437, 0.7773358, 0.40899503, 0.39352572, 0.2327718, 0.56090474, -0.49226496, 0.38767368, -0.9593605, -1.1123607, -0.44955578, -0.3628536, -0.5460384, 0.32615474, 0.13901898, -2.6355207, 0.19402876, -0.04717843, 0.17068072, 0.28454548, -1.0561017, -0.66633075, -0.34170133, -1.3371099, 0.044984326, 0.07677465, 0.05226846, 0.52557135, 0.30926895, -1.9115534, -0.09205331, 0.27917716, -0.031678997, -3.0894306, 0.52631336, -4.473339, 0.7226737, 0.037973236, -0.8906861, -0.060171038, 0.48219076
};

const int layer2_weight_out = 20;
const int layer2_weight_in = 20;

// Shape: [20]
const float layer2_bias[] = {
    0.26429033, 0.16649218, -0.1524452, 0.069015145, 0.15898658, 0.1821071, -0.09403746, -0.12587754, 0.043692138, 0.25044265, -0.114908636, -0.07777662, -0.2269246, -0.4595295, 0.22864215, 0.124172844, -0.20613837, -0.18415174, 0.07560676, -0.26359567
};

// Shape: [2, 20]
const float layer3_weight[] = {
    -0.8194948, -0.21968387, 0.7490686, 0.43855843, 0.1030049, 0.45391333, -1.1450022, 0.14572191, 0.35366333, 0.41683933, 0.91300064, -1.0086149, -0.09817061, -2.0191107, 0.3142727, -0.24096514, -0.23666416, -0.27696696, -0.6873828, -0.8346599, -0.35473466, -0.29247597, 0.17127196, 0.35453892, 0.00843577, 0.2875004, -0.17240773, -0.058625918, 0.42711923, -0.10152243, 0.9782738, -0.79992616, 0.17389679, -0.86238194, -0.21112806, -0.28979096, 0.1632242, 0.16317555, 0.12610668, -0.6429162
};

const int layer3_weight_out = 2;
const int layer3_weight_in = 20;

// Shape: [2]
const float layer3_bias[] = {
    0.27983543, 0.24070053
};

#endif // MODEL_WEIGHTS_H
