#ifndef MODEL_WEIGHTS_H
#define MODEL_WEIGHTS_H

// Shape: [20, 7]
const float layer1_weight[] = {
    -0.37669986, -0.09174022, -0.08842233, -0.36408672, 0.16718212, -0.07836437, 0.20269033, 0.6869755, 0.6340801, -0.34058782, 0.32780835, -0.5292936, 0.6059946, -1.9301873, -0.01304099, 0.001578927, -0.32445118, -0.34159204, 0.17946705, -0.22087511, -0.2990383, 0.8024214, 0.2970367, -0.16461797, -0.38114467, -0.08310485, -0.5819009, 0.63134134, -0.11670013, -0.20384961, 0.2440032, 0.33731475, -0.43945485, 0.2251405, -0.31637245, -0.07572617, 0.14281897, -0.038747136, 0.12440738, -1.1624734, 1.3096802, -0.19958949, -0.04479754, -0.236097, -0.0016652048, 0.1988292, 0.07793298, -0.09084168, -0.06586301, -1.0483836, 0.8938597, -0.59697944, 0.7355409, -0.03786687, 0.26868704, -0.46181598, -0.32726032, -0.06338234, -0.12853539, 1.3759978, 0.23283319, -0.3002879, -0.84172636, -0.16292399, -0.20165092, -0.31625372, -0.19921452, -0.26749325, 0.2679196, -0.38016012, -0.013524283, 0.27317846, -0.01927457, -1.0533088, 0.44257995, -0.4658925, 0.6495543, 0.12552902, 0.079793036, -0.23211658, -0.07821688, 0.23408565, -0.3165847, 0.16057733, -0.00055387616, -0.14309072, -0.07884669, 0.05360377, -0.0058313906, -0.20997316, -0.013052106, -0.27143815, 0.23530069, -0.13729726, -0.23962966, 0.25168067, -0.019462822, -0.2687395, -0.34093684, 0.47012788, -0.0177165, 1.2101582, -0.4312266, 0.33796936, -0.8782251, 0.10503954, -0.16218764, -0.06716734, 0.941003, -0.9135712, 0.5965716, -0.71833104, 0.13529791, 0.025477072, -0.2557312, 1.1835774, 0.89906687, -0.8170057, -1.3587803, 0.08390417, -0.28576878, 0.32561022, 0.0010284801, -0.13379332, -0.26827458, 0.054794457, -0.10527408, 0.16853705, -0.10872537, 1.6461633, -1.9921038, 0.71005404, -0.55071944, 0.90092224, 0.4018327, -0.222686, -0.60495865, -1.5316103, 0.05457557, 0.36315337
};

const int layer1_weight_out = 20;
const int layer1_weight_in = 7;

// Shape: [20]
const float layer1_bias[] = {
    -0.077172786, 0.20245832, -0.3014794, -0.08152432, -0.29204112, -0.022236617, -0.32320753, 0.06364384, 0.028499812, -0.013993076, 0.36041686, -0.25196493, -0.24066058, -0.1360146, 0.14844614, 0.11312559, 0.007117344, -0.35400406, 0.018324602, -0.039442133
};

// Shape: [2, 20]
const float layer2_weight[] = {
    -0.031728998, 2.0413613, 0.20499358, -0.40796444, -0.43842012, 3.266566, 0.06330714, -0.7577433, 1.2266306, -0.07478286, -0.30391943, 0.08214119, 0.0614582, 0.13061818, 1.4512317, 3.0285277, -1.8011155, -0.10307512, -5.9553547, -1.3773991, -0.086744055, 0.53482175, -0.06007816, -0.11958579, 0.14948566, 1.4772502, 0.10154006, -0.015082096, 0.9191652, 0.020746203, -0.05367718, 0.0660615, -0.14985496, -0.10304191, 0.42986298, 0.8686717, -1.0655204, 0.12494282, -1.5448176, -0.4761929
};

const int layer2_weight_out = 2;
const int layer2_weight_in = 20;

// Shape: [2]
const float layer2_bias[] = {
    -0.19326381, -0.056717712
};

#endif // MODEL_WEIGHTS_H
