#ifndef MODEL_WEIGHTS_H
#define MODEL_WEIGHTS_H

// Shape: [20, 7]
const float layer1_weight[] = {
    -0.66389084, -0.17938717, 0.09002069, 0.76644737, -0.024630778, -0.3636426, -1.5655707, 0.23154745, 0.0845111, -0.27982166, -0.18891105, -0.33367375, -0.29384333, 0.15032718, -0.45735013, 0.08760719, -0.50571173, 0.998237, -9.897486e-05, 0.6116006, -0.54501855, 0.4018678, -0.62752956, 0.16056755, -0.7815277, -0.33605784, 0.10492528, 1.0146252, -0.3059654, -0.047742583, -0.14473857, -0.47677264, -0.95850194, 0.18334137, 1.2217054, -0.10742512, 0.13153204, -0.2025283, -0.3342942, -0.5156914, 1.83515, -0.94211996, -0.04258448, -0.33503473, -0.08130658, -0.023038656, 0.31911096, -0.23100606, -0.17127529, 0.14077254, -0.11862691, 0.043759007, -1.1804479, 1.2290167, -0.6920874, 0.73754674, 1.0975868, 0.050941616, -0.038605325, -0.2889235, -0.44720381, -0.8981907, 0.37686312, 0.6856472, -0.30222732, 0.047070652, 0.60381687, -0.2560018, 0.45799425, -0.59022266, 0.6493156, -2.1119416, -0.4401565, 0.8076474, 0.33635664, 0.13996302, -0.016112203, -0.2718842, -0.097953446, 0.07028379, 1.1716713, 0.47826442, -0.244837, -1.1262448, -0.09658347, -1.1261193, 0.1271544, -0.85636234, -0.13307495, 0.031028602, 1.1622044, -1.4738469, 1.6467141, -1.3429933, -0.054677308, -0.52558947, 0.20596054, -0.38711682, 0.23449227, -0.0859696, -0.33206633, -0.16517806, 0.27295277, 0.33253166, 0.053032607, 0.3617698, 0.11958264, -0.28167537, 0.08866644, 0.5264054, 0.78630143, -2.398054, 0.14523253, -0.21907374, -0.37377334, -0.08185929, 0.1612635, 0.21558496, -0.2933995, -0.6209251, -0.26736504, 0.0746293, 0.055090386, -0.13491102, 1.1023101, 0.8046462, -0.092035815, 0.032918293, -0.2144794, 1.7795572, -0.77015245, 0.1383797, -1.0429072, -0.09745458, 0.044614054, -0.04600077, -0.564047, 1.3765807, -0.08248072, 0.699098
};

const int layer1_weight_out = 20;
const int layer1_weight_in = 7;

// Shape: [20]
const float layer1_bias[] = {
    0.11113388, -0.07836115, 0.13031198, 0.09604987, 0.45508438, 0.20462324, -0.13913663, -0.028082361, 0.23992328, 0.29581934, -0.40872347, -0.097502895, 0.26650548, 0.5177326, -0.33425543, 0.2340111, -0.1313708, -0.2619314, 0.042632982, -0.43813613
};

// Shape: [1, 20]
const float layer2_weight[] = {
    -0.43981454, -0.18145227, 0.6031261, -0.23865733, -0.8201003, 1.7810662, -0.11982499, -2.7080305, -0.20887758, 0.7266803, 0.13191357, 1.1558307, -0.22190206, -1.1272582, -0.059956744, 1.3535683, -0.18224664, 0.75175625, -2.5192735, -1.057876
};

const int layer2_weight_out = 1;
const int layer2_weight_in = 20;

// Shape: [1]
const float layer2_bias[] = {
    0.024606882
};

#endif // MODEL_WEIGHTS_H
