#ifndef MODEL_WEIGHTS_H
#define MODEL_WEIGHTS_H

// Shape: [20, 10]
const float layer1_weight[] = {
    -0.36927202, -0.07351022, 0.3813888, 0.62802625, 0.21308522, 0.05037225, -0.4658868, 0.19414994, -0.11612154, -0.15064596, 0.07172017, -0.33118722, 0.08256883, -0.1656484, 0.54355925, -0.00510568, 0.31012186, -0.12401833, -0.5321543, -0.33184707, -0.14349079, 0.3837883, -0.28295228, 0.5290821, 0.09600129, 0.036863826, -0.58367, 0.5201185, -0.023107402, -0.031212505, -0.31850436, -0.079075634, 0.15098733, -0.8219369, -0.14095533, 0.15249978, 0.91920865, 0.10893523, 0.18257852, -0.19161066, 0.28795025, -0.057620756, 0.21676314, 0.25893202, 0.53774065, -0.8717752, -0.584138, 0.07376443, 0.030969124, 0.08628332, -0.58280843, -0.29978302, 0.2943073, -0.19445007, -0.105453245, 0.32033667, 0.0907463, -0.5411961, -0.0907433, 0.054788418, 0.12690501, 0.10449048, 0.03967154, -0.39641738, 0.69297224, -0.63580143, 0.42818558, 0.20937885, -0.080235906, -0.6334397, -1.6519321, -0.75384516, 0.32466397, -0.42153758, 0.06500283, 0.12052905, -0.20829834, -0.12608908, -0.29000938, -0.30364552, -0.22281276, -0.010662814, 0.012109207, 0.004375912, -0.73769987, 1.0876571, 0.18534231, -0.091051996, -0.033787046, -0.44255155, -0.23498712, -0.7265671, -0.37770924, -0.6074063, 0.21378738, -0.31517455, 0.66042656, 0.16297318, 0.21398118, -0.0011925495, -0.27579203, 0.6574305, 0.008469062, -0.08502986, 0.1097086, 0.23065108, 0.09932767, -0.06573864, -0.25617683, -1.1529398, -0.30718306, -0.071462534, -0.3804896, -0.23633383, -0.19510537, -0.2040577, 0.14788331, -0.1473651, 0.15688117, 0.1097502, 0.3724596, -0.43924293, 0.02290914, 0.4756379, -0.09328561, 0.48083854, -0.49890324, -0.14212918, 0.15765792, -0.20164554, -1.2735229, 0.68328816, -0.61700404, 0.16337638, 0.19987287, 0.1612366, -0.15270296, 0.4232873, -0.43766972, -0.9940868, -0.19651394, 0.45712665, 0.20113377, -0.28007033, -0.3383452, 0.36154687, 0.13064893, -0.08508815, -0.17691474, 0.21945733, 0.10479411, 0.1254931, -0.1211101, 0.03412675, 0.43172505, -0.5441537, 0.6247076, -0.5387598, -0.13860552, 0.77849156, 0.43711868, -0.013383188, 0.07158126, -0.84844637, -0.3898768, -0.12216095, 0.84784526, 0.11855855, 0.3370776, 0.2393559, 0.3078171, 0.3884552, 0.052205656, -0.53850317, -0.21245825, 0.2736644, -0.8185924, -0.72638154, 0.6205526, -0.5133348, 0.19691275, 0.16752388, -0.3731972, -0.18557951, 0.3120189, -0.25027946, 0.15098822, -0.5572431, 0.21637377, 0.3788939, -0.39312476, 0.17319462, 0.26376265, 0.0012900948, -0.7601777, 0.42084536, -0.54653853, -0.16984458, 0.114372596, -1.2905567
};

const int layer1_weight_out = 20;
const int layer1_weight_in = 10;

// Shape: [20]
const float layer1_bias[] = {
    -0.27478418, -0.041705858, -0.002364004, 0.048435383, 0.127946, 0.44774327, 0.29485074, 0.51756644, 0.0748947, -0.3920552, 0.15060733, -0.14133306, -0.20527099, 0.14321357, 0.016872758, -0.17268886, -0.020315498, 0.38153124, -0.2430789, 0.36617997
};

// Shape: [20, 20]
const float layer2_weight[] = {
    -1.2525492, -0.26793417, -0.03847729, 0.09003654, -0.814088, 0.33839983, -0.4229655, -1.071911, 0.6506951, -0.31777507, 0.26764834, 0.005834783, 0.4353055, 1.01068, 0.27469456, -0.9441003, 0.22235458, -0.19504128, 0.6543696, 0.14006291, -0.65938824, 0.23359568, 0.3014777, 0.124868125, 0.024542326, 0.45407036, 0.6984216, -0.47814515, -0.34794816, 0.26209345, 0.27654165, -0.42562878, -0.054476596, -0.24719128, -0.21994412, 0.07988799, 0.37483993, 0.4765161, 0.12561533, -1.5259435, 0.32398656, -0.22424337, 0.57740885, -0.5450108, 0.019901855, -0.18852094, -0.6936581, 0.029309371, 0.66767806, -0.31463468, 0.037809525, -0.0934495, 0.018108657, -0.77990204, -0.2436643, -0.3081298, -0.60218793, 0.99977076, -0.028072916, -0.03723358, 0.5192242, 0.6782775, 0.09820966, 0.07444591, -0.67204964, -0.0626667, -0.23122531, -1.9796698, 0.8150726, 0.12651615, 0.23415662, 0.20351519, 0.5220796, 0.35752103, -0.339205, -0.26304993, -0.1424038, 0.7606149, 0.6653307, 0.45889273, -0.43661994, 0.0495302, -0.6833524, -0.029629642, 0.14169219, 0.62051284, -0.41040787, -0.0881555, 0.51786184, 0.30607918, -0.4427597, 0.6598786, 0.14660874, 1.4191386, 0.1304105, -0.42339697, -0.530558, -0.8776677, -0.04525008, -0.5953612, -0.10690524, 0.025293114, -0.10279513, 0.12196257, -0.26579085, 0.21297534, 0.33090582, 1.0662433, 1.0266881, -0.14066657, 0.46380967, -0.04459549, 0.14972404, -3.1193843, -0.17910098, -1.1574005, -0.64932984, 0.38290635, 0.013597346, -2.0636122, 0.42254138, -0.07535574, -0.055647857, -0.75042754, -0.57111806, 0.28359517, -0.71572846, -0.38920274, 0.33380857, -0.3326764, 0.15748858, -0.27648503, 0.6338502, 0.24561821, 0.23261508, -0.0871741, -0.30875027, 0.04469149, -0.042459175, -0.4691661, 0.4038514, -0.23042674, 0.13026401, -0.6605345, 0.20500648, 0.256054, -0.15995352, -0.25875148, 0.090151, -0.34178412, -0.1990584, -0.1740218, -0.018457692, -0.0054421457, -0.037927274, 0.039259024, -0.38205153, 0.7793692, 0.15536198, -1.1623087, 0.55545664, -0.23380955, -0.015061983, -0.40070662, 0.10775338, -0.7314676, -0.9992576, 0.75092745, 0.4805589, 0.19555327, 0.032434545, -0.056431454, 0.055590183, 0.60488325, -0.2035587, 0.013374718, -0.53797925, -0.3527621, 0.0559205, 0.60851604, 0.5411025, -0.13989657, 0.16588652, -0.67320997, 0.7589894, -0.3874347, -0.22981441, 0.18251954, -0.9781372, 0.3735646, -0.69073224, 0.10699032, 0.07994302, -1.125349, -0.28656477, 0.4276046, -0.58349186, -2.4218583, 0.10576294, -0.41068143, 0.6671203, -0.16663685, 0.67812395, -0.26652667, -0.5189579, 0.31292787, -0.4308122, -0.9336225, 0.39545992, 0.48485997, 0.46339068, 0.112883955, 0.07411704, -0.0036639578, -0.0011931867, -0.31271094, 0.33817866, 0.91734934, -0.7405626, 1.097226, 0.52616024, -0.02639257, 0.62066007, -0.86013275, 0.04400736, 0.20941156, -0.44820145, 0.79489684, 0.5337484, 0.110413074, 0.3213101, -0.19351666, -0.91217524, -1.3954797, -0.14202811, 0.004884068, -0.32112578, -3.597488, 0.18952624, -1.5407385, -0.52598715, 0.24292484, 0.093998656, -0.109522246, 0.010377245, 0.14810264, 0.016661808, -0.27100044, -0.37356433, 0.16652365, 0.15287529, -0.09913299, 0.042846534, 0.26029393, -0.20887649, -0.08471864, -0.003643128, 0.040812444, -0.08811073, -0.26178777, 0.8846336, 0.29657105, 0.10202199, -0.5505389, -0.066210896, -0.6611067, -0.30779693, 1.312273, -0.11468474, -0.5054416, -0.6956401, -0.15717158, 0.37093738, -0.31986544, -0.14176078, 0.083369955, -0.4659497, -0.5253363, 0.007077573, 0.69943887, 0.15065312, -0.01806009, 0.08884729, -1.4086813, -0.6394126, 0.28651068, -0.5902063, -0.48750624, 1.1509615, -0.13894804, 0.0011562456, 0.13613458, 0.70744956, -0.33532885, 0.12570965, -0.57105356, -0.5566161, 0.81739116, -0.08670664, 0.8984783, 0.7588728, 0.28961423, 0.39259034, -0.957823, -0.08136061, 0.05870671, 0.31941947, -0.5853225, 0.663277, 0.009004996, -0.23663332, 0.04534977, -0.2569787, -0.44013503, -0.20200272, -0.5343433, -0.94233865, 0.8073054, 0.053764183, -0.47846293, 0.46023402, -0.066186115, -0.0631693, -0.4358731, 0.1420952, -0.02356449, -0.36409718, -0.11603458, 0.3535519, -0.58102787, 0.15443645, -0.14777802, -0.17691748, -0.106638625, 0.003644249, 0.048433017, -0.39745238, 0.657658, 0.054708496, -0.14147222, 0.44650304, -0.031968586, -0.21530133, -0.05519631, -0.06379184, 0.046589836, -0.2684708, -0.05763872, 0.40674007, -0.48016706, 0.14996481, -0.14796063, 0.017787889, -0.023205731, -0.06392697, 0.15082708, -0.28249648, 0.6740691, 0.053077303, 0.12637684, 0.51213276, -0.47444415, 0.7665061, -1.0985956, 0.22208676, 0.35098898, -0.42523363, 0.6638538, 0.7115775, 0.13734163, -0.3674236, 0.23187174, 0.6631108, 0.026260551, -0.12209284, -0.031753, -1.2552253, 0.117069215, 0.096335426, -0.6253076, 0.504153, -0.101549424, 0.39912897, -0.76614964, 0.16243997, 0.2075058, -0.5319295, 0.44672042, 0.5169492, -0.57144284, -0.21814336, -0.50379914, 0.26032582, -1.2834315, 0.24964485, -0.057272997, -0.6563045, 0.8486226, 0.024555469, -1.0306014
};

const int layer2_weight_out = 20;
const int layer2_weight_in = 20;

// Shape: [20]
const float layer2_bias[] = {
    0.17474756, -0.12979047, 0.42629334, -0.42325926, 0.074012354, -0.0039710016, 0.21447004, 0.20507583, 0.2879266, -0.12204929, -0.15973288, -0.024870213, -0.14839886, 0.099496126, -0.15067318, 0.18624412, 0.32082716, 0.22664574, 0.071953274, 0.2669851
};

// Shape: [2, 20]
const float layer3_weight[] = {
    0.62903637, -0.27038068, 0.9092251, 0.65747917, -0.35523826, 0.35950312, 0.5755415, 0.16980113, 0.7149294, -0.97583854, -0.3312272, -0.39418665, -0.0041724825, 0.46077076, -1.4161309, -0.047898665, 0.24488401, 0.08041779, -0.56201077, 0.8364508, -0.52868307, -0.05638632, -0.19117057, 0.8874523, 0.65380555, -1.0574121, -0.270198, -0.17852442, -0.03673247, 0.4832898, 0.5246316, 0.70317215, 0.01770539, -0.066881694, 1.0075366, -0.48719576, -0.205849, -0.15079084, 0.6052908, -0.6216026
};

const int layer3_weight_out = 2;
const int layer3_weight_in = 20;

// Shape: [2]
const float layer3_bias[] = {
    0.06398311, 0.020646226
};

#endif // MODEL_WEIGHTS_H
